{"layers":[{"neurons":[{"weights":[0.4963595424551117,-0.7717022429755307,0.19166676397875773,0.042254363881775656,0.7390736709207284,-0.5410955305610443,1.7602469190372712,-0.2763675779926509,0.15243025870134339,1.3332869358093495,1.9901466954098612,-2.063552343498606,0.0817596796582371,2.7484501504131975,0.7400699699171015,0.48192027072966,-0.5383923167889108,0.02554571755490076,-0.8871463774316518,-2.715262530390525,2.3660943173869216,2.093698610189829,-0.42779629274584735,2.021343288034573,0.10443107003974199,-0.8395840333905659,1.1090158304376658,0.36117505845240816,1.104404229198982,-0.3394631629095716],"bias":-2.4339225782483123},{"weights":[-0.021891113865377957,-0.006958321437285912,-0.016733482990539058,-0.24252439283408117,0.10098908437157429,-0.9409189093600328,1.843925164568988,0.2570363407711884,0.10410216292353203,1.2575168414291844,1.55527497212752,-1.1009644735983306,0.04587085507776885,1.5343461956445255,0.61067151053506,-0.13223995625558496,0.992556115519547,-0.0880127412426569,-0.763460254053855,-1.4104573744220743,0.6231217347480713,0.35651603348486444,0.15428815900818887,0.49511120381596435,0.2989712828794733,-0.3795724954796713,1.699458225501643,0.26203429301741177,1.2790633349221794,-0.5091012851773321],"bias":-1.1393181348828634},{"weights":[-1.2400515467839852,0.29385098908286317,-0.11780166637172884,-0.03946393553440662,-0.24489703245827435,0.8280667035230689,-1.9098332290378548,-0.0309729179350543,-0.549543992182147,-1.4020070009111079,-3.229034588226246,2.360961780711125,-0.5620420360577711,-3.344334914431168,-1.0423761361243655,-0.1561710150655138,0.4903176105593309,-0.06392034055411355,1.9439155955321832,3.3403113950827032,-3.4254798959041546,-3.242619653276611,0.176918637532622,-2.271101514481521,-0.5380652801605059,0.6759875357938437,-1.2982455484995186,-0.45468550200166913,-2.5163476569296077,0.5919368614023311],"bias":4.193474891882515},{"weights":[0.43053110017417423,0.9270452139489089,0.5609386044071402,-0.02696652240116824,-0.6179158673097606,0.04937479649246772,0.2869373389090573,-0.47988167177558627,-0.017771061022946007,0.9280645126111248,1.4304682291205544,-1.2339528045587078,0.06700037362196118,1.4798323104131978,0.7084845707580372,-0.18157843418552186,-0.23364235866883323,-0.09461216563989383,-0.8525241304909386,-1.496969554526224,1.9093380079718587,1.9692605237439926,0.5621435308004852,0.642256687188083,0.03815754253494145,0.032506223073255736,0.8081267610913401,-0.09477297083267444,0.9975070165211986,-0.08408244524125828],"bias":-1.9753884639981516},{"weights":[0.31524214544357515,-0.3634097241546294,0.9776741375557546,1.5094206161057981,-0.37773891916811214,1.2834268016375585,-2.838051305816663,0.34515694481183035,-1.1434706301064002,-2.4792598570869617,-3.4225274899780125,2.568282620637088,-0.6898920935626776,-3.2487961880685976,-1.48217690462679,0.3417484066568715,-1.3435190399448478,0.38209927000603283,0.9802115198834834,2.7993534701448377,-2.256345277889242,-2.274031827266286,1.0445021424229233,-2.0835996221316235,-0.9960970506349228,2.3115192686307555,-3.388301177839674,0.04197291597404762,-1.8715501980034304,1.1018208804318748],"bias":2.7240795038484698},{"weights":[-0.004434766300569713,0.42840766139039943,0.40143804713896086,-0.18067839615319908,0.04330835963922061,-0.19603440538726907,0.0784035138864025,0.35751753489814986,0.4509383357543337,0.6226086883827818,0.9259242309444001,-0.8740932365085603,-0.18848676889951768,1.1299039074823225,0.35474229790264644,0.32261226657561826,-0.6813006587427488,0.4820000072733476,-0.32731573259134306,-0.6314670266378076,1.238468930190477,0.54540622323881,0.05741563963253781,0.9174480033817968,0.2850388323108024,-0.3396364619593369,0.6297684384517066,-0.1473065650249903,0.1387691251061133,-0.1361768109524373],"bias":-0.9168470599611382},{"weights":[0.07158720735543422,1.0205033072092098,-0.6347365475993548,-0.3874348887039111,0.5336782385996602,-0.2740040436388722,0.6698481951667958,-0.27609316415148555,0.40003196234725136,0.6404799639765247,1.6262419752471569,-0.4313858949334191,-0.22636679972722473,2.2810616705122704,0.7092436131812676,-0.4735571643310539,-0.2174338503863674,0.14627660169200152,-0.4306415076866317,-1.7008282083378603,1.3645813879463542,2.7734131253519796,0.31363915449472546,1.2588392475975556,0.6541648568417984,-0.7813335598921152,1.3307879608440754,-0.45617342408062544,1.0594646373357535,-0.6664192989368083],"bias":-2.634159112966662},{"weights":[-2.1962520354262325,1.9829221579462508,-1.5636465822559507,-0.7914511672769085,-1.99118978861079,1.8747180650517485,-1.2209475231152223,0.1478085362586371,1.4471879158360694,-0.2167639139386868,-2.7582843560821835,2.15525392744933,-0.08774851439722646,-2.7311467036545745,-1.6766092312279235,2.4247952415831677,0.9292180510413763,-0.07325944317555266,2.447481338565777,4.244980096975315,-3.5302953585162355,-1.7083840793114258,-0.39036074978982516,-2.868713105486634,-2.1513884561859173,3.105202152721504,-0.05945147922554519,0.3790540870418908,-0.6232947029105899,2.939462715297075],"bias":1.2769516090489832},{"weights":[0.1955704422020064,0.481459954020659,0.19747279040513566,-0.36843658411121116,0.6214021925514741,0.30283766666446105,0.09752814283972418,-0.08287743588919805,-0.08585046909881625,0.5871213620776179,0.7858491315313214,-0.8091112275296811,-0.2886662382287003,0.9863860834754772,0.06927234177275239,-0.34653481260506497,-0.06484339729072731,-0.055802467707800174,-0.29558779342775265,-0.9311823564087524,0.8586994035907374,0.7400720745198728,-0.3365098251676845,0.13047925978994673,0.12867605149393407,0.07904607115149996,0.4235806903903492,0.033800819436260676,0.14573058806149378,0.27744634893443276],"bias":-0.8268536758138366},{"weights":[-0.9309147829969073,4.1695419117217565,-1.2235651735204485,-1.2761186481174094,-0.9163800711447566,0.16534049481625201,0.03548695350535202,-0.4391274804296168,1.1692384468194696,0.5073537382814075,0.591210048296116,0.9490018089437788,0.4250054415815812,1.577321136463396,0.6862125900378216,-0.5168002202491678,-1.0401817120936692,-0.3167662774806982,-1.0198724311983007,-2.1726288716474706,0.48081758310026934,6.869640999897153,-0.09132009684510597,0.2766360929211508,0.26262402593830975,0.9749602757437832,0.34929855436273144,-0.28266442646086154,0.9505608012040249,-0.12959949478025004],"bias":-3.4554734586947236},{"weights":[1.3840773976598717,0.3699676945775213,1.4033114782421505,1.1077080446060754,-0.3157531540862459,-0.5388174795884877,0.6121958407255066,-0.2207481077570551,-0.306137545318498,0.22876092083035382,0.7169742600309991,-0.9266100618292634,-0.22638703700882756,0.4305663120152471,-0.009650662965843302,0.2315367063293274,-0.727615629280379,0.17078608068777257,-0.5737744206515799,-1.0656865961345787,1.7421294609202203,1.117556241343488,0.6331709517411566,1.3912457061410592,-0.47921132374506803,0.5345376145781476,-0.18778007311144293,-0.08101775290946212,0.21305640355577812,0.6727641905472318],"bias":-0.8522648931610458},{"weights":[-0.5661123736183421,0.8391589522948615,0.3273103032925821,0.21058863122064614,-0.7321781809956242,1.2165445980774217,-2.6080013696584072,0.47273569228599754,-1.2802704142984702,-1.4844662727825746,-4.057728786105781,2.671498436486975,-0.15962724342787407,-4.525530525013704,-1.1992481830973243,-0.2262105105965144,0.9826237731154742,0.16772867835589356,1.7811830495757304,3.7353544816949147,-4.177234371566403,-3.6365048571909226,-0.4498946775527056,-3.3844000056825307,-0.8407976992449582,0.9688960958069046,-1.7501981823204331,0.4062551438706674,-2.2739919203394146,0.9902969780994023],"bias":4.90412460727609},{"weights":[-0.243733882126549,0.8133030346021447,-0.32325996314511873,0.23439911347103595,-1.144980271516213,1.1217009551934647,-3.1731360229985963,-0.30153795684144347,-1.0521082017945644,-1.9066137684727706,-4.099312692601736,2.978819469903307,-0.7172824770643023,-4.071312220839845,-1.7322972216538823,-0.26729763267580836,0.8693082366902051,-0.31132189733688875,1.7192124054560372,4.428859541410179,-3.981352818550875,-3.6286041925003536,0.4139626931051013,-3.504364683466083,-0.8180559939973245,1.7353591751703725,-2.6164319006524126,0.3864507839031216,-2.864444252691117,0.9587736446554439],"bias":5.2670279922912915},{"weights":[-0.33423259419917545,-0.16527204135371848,0.06927328038342091,0.40361569380354284,-0.41305677827745213,0.22087410459089102,-0.6920658174122006,0.016094958548589444,-0.25015433651159186,-0.8876783364798585,-0.550937374820871,0.6682234603915788,-0.0489033600377293,-1.2706920192681188,-0.4431185752905956,-0.20608912942051338,0.4496858620858575,0.10628980329766413,0.5606735416049891,0.838959193020078,-1.240914099450688,-1.4323942918265231,0.3344420319230955,-0.557551044418321,0.11653955623785148,0.5141541234180611,-0.45243040549674834,0.2577317625133668,-0.4385153338017508,0.385465393124837],"bias":1.2080494992274464},{"weights":[0.645677627850866,-0.17465357048271313,0.43986198382463326,-0.20642087257527755,0.18750594894492884,0.19161211359599908,-0.10247949467677345,-0.08014574239838379,0.28185701004769165,0.17858719888592764,0.12666182204545617,0.42060011112581647,0.22511141241039534,-0.342797969843623,-0.3499867972200735,-0.2982745779719417,0.3453031911261405,0.3543679883714548,0.46923825537899405,0.1952056428491925,-0.20271167919652294,0.1671368670805503,0.2534410821262938,0.3424710946489865,0.07708502119045671,0.045391941103705154,0.08908526168291904,0.3281209273779152,0.3479900547734248,-0.0021526544193018796],"bias":0.32732963439235396},{"weights":[1.8290045205607737,-2.1466324953366374,1.377250161330425,0.3191944202809747,1.5156598743045069,-0.06421249999589031,0.307275255960831,-0.4989780505377992,0.0023504921121036237,-0.1497870125950938,1.638659652805507,-0.7555420173298572,-0.4986248457974973,1.7367617814847354,0.5408005900582216,0.01935188348732301,-0.38752302324537036,0.11783603296167411,-0.5517376743657577,-2.035270835375316,1.662114434823662,-0.08199209259355784,0.4654934883810572,1.9609792317382428,0.7980104596018213,-0.8797215650747857,-0.21869054375800737,-0.1457046109072806,1.0261871896538908,-1.3336582751438621],"bias":-0.6741201419846586}]},{"neurons":[{"weights":[6.647452470461313,3.9669631713817357,-9.484549371935284,4.500836536543288,-9.348816801765826,2.5220054332023882,5.3422683944601035,-9.640636690412885,1.911924158944537,8.272194812459741,3.3157651254839813,-11.41263273751787,-12.12092174973291,-3.1404027687461107,-0.29936696844275523,4.833624425448772],"bias":-0.9970447663837029}]}],"normalizationParams":{"mins":[6.981,9.71,43.79,143.5,0.05263,0.01938,0,0,0.1167,0.04996,0.1115,0.3602,0.7714,6.802,0.001713,0.002252,0,0,0.007882,0.0008948,7.93,12.02,50.41,185.2,0.07117,0.02729,0,0,0.1565,0.05504],"maxs":[28.11,39.28,188.5,2501,0.1634,0.3454,0.4108,0,0.304,0.09744,2.873,4.885,21.98,542.2,0.03113,0.1354,0.396,0,0.07895,0.02984,36.04,49.54,251.2,4254,0.2226,1.058,1.252,0,0.6638,0.2075]}}